<?xml version="1.0"?>
<opencv_storage>
<stage10>
  <maxWeakCount>5</maxWeakCount>
  <stageThreshold>-9.2324113845825195e-01</stageThreshold>
  <weakClassifiers>
    <_>
      <internalNodes>
        0 -1 735708 -2.9828548431396484e-03</internalNodes>
      <leafValues>
        4.7777777910232544e-01 -5.1908397674560547e-01</leafValues></_>
    <_>
      <internalNodes>
        0 -1 788812 3.0646361410617828e-03</internalNodes>
      <leafValues>
        -8.1932872533798218e-01 3.3403760194778442e-01</leafValues></_>
    <_>
      <internalNodes>
        0 -1 1384181 -2.7608107775449753e-02</internalNodes>
      <leafValues>
        5.7314300537109375e-01 -4.8015829920768738e-01</leafValues></_>
    <_>
      <internalNodes>
        0 -1 823704 4.4081479427404702e-04</internalNodes>
      <leafValues>
        -6.9757950305938721e-01 4.4821074604988098e-01</leafValues></_>
    <_>
      <internalNodes>
        0 -1 38072 1.5263177920132875e-03</internalNodes>
      <leafValues>
        -5.5731874704360962e-01 5.2262550592422485e-01</leafValues></_></weakClassifiers></stage10>
</opencv_storage>
